#pragma once
#include <stdio.h>

// HR, HRV_RMSSD, HRV_SDNN, SCR_COUNT, EDA_TONIC, EDA_PHASIC
// RMSSD - Visar IBI varierar på kort sikt.
// SDNN - Hur IBI har förändrats över längre tid.
// HRV är skapad genom kombination av dessa två

static const float som_weights[] = {
    0.79684384f,  1.40190536f,  1.31992006f,  4.90112404f,  -0.36396861f, 0.05568100f,  0.79785835f,
    1.35455810f,  1.29043763f,  4.78034919f,  -0.36533178f, 0.05359370f,  0.80300474f,  1.29271739f,
    1.24158235f,  4.62750033f,  -0.35466039f, 0.06342800f,  0.81689034f,  1.20622214f,  1.16226180f,
    4.43529707f,  -0.33124998f, 0.08418240f,  0.84640258f,  1.07904967f,  1.03534422f,  4.18773395f,
    -0.29495724f, 0.11547713f,  0.90070813f,  0.89380379f,  0.84211593f,  3.86505975f,  -0.25089164f,
    0.15704651f,  0.98874112f,  0.64299459f,  0.57409029f,  3.45525380f,  -0.21452593f, 0.20779067f,
    1.11291568f,  0.34362966f,  0.24840356f,  2.96937597f,  -0.20985153f, 0.26484100f,  1.26145467f,
    0.04174984f,  -0.08729354f, 2.45049710f,  -0.25340343f, 0.32330913f,  1.40780807f,  -0.20667521f,
    -0.37428159f, 1.96384893f,  -0.33457543f, 0.37688059f,  1.52375358f,  -0.36935769f, -0.57657775f,
    1.56874876f,  -0.41937513f, 0.41891482f,  1.59671136f,  -0.45335726f, -0.69667724f, 1.29176554f,
    -0.47966932f, 0.44441770f,  1.63328905f,  -0.48824448f, -0.76023678f, 1.12164175f,  -0.51141040f,
    0.45266053f,  1.64828844f,  -0.50084836f, -0.79284162f, 1.02582728f,  -0.52495440f, 0.44779121f,
    1.65400163f,  -0.50568105f, -0.81022736f, 0.97105492f,  -0.53010013f, 0.43645589f,  1.65732935f,
    -0.50833372f, -0.81986855f, 0.93391599f,  -0.53173805f, 0.42498543f,  1.66143520f,  -0.51059093f,
    -0.82492953f, 0.90128481f,  -0.53159915f, 0.41793074f,  1.66775160f,  -0.51316534f, -0.82685720f,
    0.86708945f,  -0.53011250f, 0.41764841f,  1.67695756f,  -0.51665018f, -0.82644660f, 0.82971170f,
    -0.52724583f, 0.42427161f,  1.68892886f,  -0.52160114f, -0.82378004f, 0.79100995f,  -0.52285208f,
    0.43574282f,  0.79007900f,  1.38315391f,  1.32949166f,  4.77068156f,  -0.37443575f, 0.06476196f,
    0.79128302f,  1.32878735f,  1.29593998f,  4.62771902f,  -0.37805585f, 0.06341447f,  0.79723627f,
    1.26242054f,  1.24509173f,  4.45702077f,  -0.37141283f, 0.07198716f,  0.81292501f,  1.17438616f,
    1.16590076f,  4.25434321f,  -0.35453086f, 0.08896204f,  0.84562993f,  1.04898665f,  1.04078363f,
    4.00592689f,  -0.32750792f, 0.11397986f,  0.90466146f,  0.86840877f,  0.84959799f,  3.69244209f,
    -0.29411105f, 0.14771501f,  0.99844318f,  0.62347306f,  0.58134207f,  3.29951462f,  -0.26601168f,
    0.19083763f,  1.12802431f,  0.32878748f,  0.25086846f,  2.83370328f,  -0.26230322f, 0.24209308f,
    1.27983271f,  0.02924591f,  -0.09365650f, 2.33439635f,  -0.29763430f, 0.29652547f,  1.42608577f,
    -0.21801432f, -0.38960388f, 1.86659663f,  -0.36511749f, 0.34556598f,  1.53876522f,  -0.37910310f,
    -0.59724291f, 1.49136951f,  -0.43692351f, 0.37984779f,  1.60689820f,  -0.46114304f, -0.71891452f,
    1.23517115f,  -0.48843859f, 0.39354023f,  1.63899462f,  -0.49468430f, -0.78254583f, 1.08407239f,
    -0.51552989f, 0.38729389f,  1.65085731f,  -0.50689403f, -0.81545153f, 1.00304103f,  -0.52701509f,
    0.36740783f,  1.65469966f,  -0.51190153f, -0.83364442f, 0.95841577f,  -0.53137382f, 0.34234732f,
    1.65686068f,  -0.51478696f, -0.84410439f, 0.92789307f,  -0.53279143f, 0.31974654f,  1.65999063f,
    -0.51698183f, -0.84942355f, 0.89957184f,  -0.53271864f, 0.30510434f,  1.66526383f,  -0.51902214f,
    -0.85070174f, 0.86794319f,  -0.53148844f, 0.30153943f,  1.67342055f,  -0.52148868f, -0.84873666f,
    0.83111969f,  -0.52901275f, 0.30985164f,  1.68479107f,  -0.52513607f, -0.84408973f, 0.78984632f,
    -0.52506608f, 0.32847956f,  0.78240958f,  1.36370255f,  1.33383541f,  4.62264912f,  -0.37423782f,
    0.08874421f,  0.78377115f,  1.30280477f,  1.29633429f,  4.46037292f,  -0.38056441f, 0.08810823f,
    0.79005097f,  1.23258008f,  1.24400196f,  4.27442667f,  -0.37744441f, 0.09531025f,  0.80649467f,
    1.14403245f,  1.16607320f,  4.06428661f,  -0.36576316f, 0.10804587f,  0.84062447f,  1.02219183f,
    1.04504591f,  3.81933026f,  -0.34616729f, 0.12552870f,  0.90181892f,  0.84943172f,  0.86008143f,
    3.52177966f,  -0.32169032f, 0.14886426f,  0.99820819f,  0.61510834f,  0.59787666f,  3.15567643f,
    -0.30092774f, 0.18016681f,  1.13021028f,  0.33019779f,  0.26951587f,  2.72207076f,  -0.29836375f,
    0.22001741f,  1.28367540f,  0.03560416f,  -0.07957135f, 2.25300802f,  -0.32651755f, 0.26433788f,
    1.43066811f,  -0.21253885f, -0.38535742f, 1.80878331f,  -0.38225768f, 0.30356548f,  1.54330554f,
    -0.37762401f, -0.60343370f, 1.45060556f,  -0.44423118f, 0.32641469f,  1.61080530f,  -0.46351236f,
    -0.73273180f, 1.20734842f,  -0.49068779f, 0.32622407f,  1.64200235f,  -0.49957269f, -0.80113000f,
    1.06652896f,  -0.51607429f, 0.30454778f,  1.65306203f,  -0.51331527f, -0.83728293f, 0.99342346f,
    -0.52714514f, 0.26936153f,  1.65630932f,  -0.51932028f, -0.85797011f, 0.95474733f,  -0.53142876f,
    0.23063275f,  1.65793304f,  -0.52279172f, -0.87019867f, 0.92892443f,  -0.53288670f, 0.19701868f,
    1.66036476f,  -0.52511086f, -0.87632442f, 0.90468276f,  -0.53295739f, 0.17465398f,  1.66463536f,
    -0.52673934f, -0.87723175f, 0.87666600f,  -0.53199255f, 0.16716374f,  1.67149681f,  -0.52822663f,
    -0.87364120f, 0.84255199f,  -0.52990616f, 0.17595268f,  1.68154134f,  -0.53040845f, -0.86631951f,
    0.80210204f,  -0.52642978f, 0.20017779f,  0.77389469f,  1.34924398f,  1.33819172f,  4.46430662f,
    -0.36378622f, 0.12329012f,  0.77552011f,  1.28222845f,  1.29671070f,  4.28782159f,  -0.37403211f,
    0.12288851f,  0.78178639f,  1.20888241f,  1.24334475f,  4.09088341f,  -0.37475811f, 0.12833997f,
    0.79807152f,  1.12092105f,  1.16775325f,  3.87700558f,  -0.36778809f, 0.13653216f,  0.83194323f,
    1.00426203f,  1.05290195f,  3.63904228f,  -0.35442756f, 0.14603987f,  0.89273116f,  0.84175135f,
    0.87779361f,  3.36137191f,  -0.33733627f, 0.15793586f,  0.98851785f,  0.62139356f,  0.62700545f,
    3.02728553f,  -0.32278203f, 0.17514290f,  1.11994246f,  0.34975105f,  0.30672361f,  2.63252072f,
    -0.32139175f, 0.19971819f,  1.27358201f,  0.06167084f,  -0.04318088f, 2.20004084f,  -0.34359666f,
    0.22899823f,  1.42234152f,  -0.18964820f, -0.35991334f, 1.78210589f,  -0.38950178f, 0.25385498f,
    1.53822967f,  -0.36424535f, -0.59387696f, 1.43809932f,  -0.44399288f, 0.26239879f,  1.60915209f,
    -0.45977920f, -0.73725823f, 1.20089651f,  -0.48798410f, 0.24743330f,  1.64272026f,  -0.50222272f,
    -0.81517818f, 1.06295778f,  -0.51384696f, 0.21093657f,  1.65492458f,  -0.51933008f, -0.85718080f,
    0.99228313f,  -0.52582678f, 0.16198485f,  1.65850780f,  -0.52699925f, -0.88153713f, 0.95641627f,
    -0.53065092f, 0.11156635f,  1.65998963f,  -0.53126567f, -0.89603194f, 0.93393652f,  -0.53238879f,
    0.06885869f,  1.66190069f,  -0.53381024f, -0.90325234f, 0.91357216f,  -0.53267642f, 0.04009800f,
    1.66525664f,  -0.53515071f, -0.90407921f, 0.88977862f,  -0.53197618f, 0.02897145f,  1.67080310f,
    -0.53581314f, -0.89914547f, 0.85972793f,  -0.53024903f, 0.03727075f,  1.67924978f,  -0.53662601f,
    -0.88919867f, 0.82234528f,  -0.52721803f, 0.06497831f,  0.76412600f,  1.34478338f,  1.34764080f,
    4.29835940f,  -0.34134915f, 0.16370294f,  0.76633906f,  1.27141015f,  1.30145889f,  4.11485374f,
    -0.35769465f, 0.16278309f,  0.77250714f,  1.19507027f,  1.24684551f,  3.91251523f,  -0.36358489f,
    0.16591480f,  0.78802040f,  1.10818241f,  1.17398799f,  3.69901879f,  -0.36181291f, 0.16941765f,
    0.82028867f,  0.99760586f,  1.06661207f,  3.47081774f,  -0.35435144f, 0.17126471f,  0.87843576f,
    0.84680516f,  0.90399449f,  3.21479777f,  -0.34368178f, 0.17217137f,  0.97064876f,  0.64258041f,
    0.66887990f,  2.91433117f,  -0.33439927f, 0.17514404f,  1.09850014f,  0.38680211f,  0.36198990f,
    2.56084596f,  -0.33417621f, 0.18295045f,  1.25048234f,  0.10695479f,  0.01550181f,  2.16818981f,
    -0.35159276f, 0.19429180f,  1.40137606f,  -0.14860440f, -0.31185355f, 1.77865475f,  -0.38922851f,
    0.20158466f,  1.52311561f,  -0.33701741f, -0.56597225f, 1.44749652f,  -0.43766702f, 0.19390323f,
    1.60110434f,  -0.44769811f, -0.72965245f, 1.21161707f,  -0.48075863f, 0.16430584f,  1.64021107f,
    -0.50075452f, -0.82208335f, 1.07078449f,  -0.50878939f, 0.11493919f,  1.65552604f,  -0.52344906f,
    -0.87264839f, 0.99793493f,  -0.52300015f, 0.05529201f,  1.66038929f,  -0.53362939f, -0.90173652f,
    0.96207093f,  -0.52911340f, -0.00333717f, 1.66212421f,  -0.53893738f, -0.91880425f, 0.94150518f,
    -0.53146826f, -0.05191759f, 1.66370768f,  -0.54180243f, -0.92725860f, 0.92441430f,  -0.53209448f,
    -0.08470124f, 1.66629777f,  -0.54298589f, -0.92826271f, 0.90479468f,  -0.53167317f, -0.09839406f,
    1.67064867f,  -0.54303397f, -0.92242220f, 0.87934346f,  -0.53026138f, -0.09109380f, 1.67748418f,
    -0.54271156f, -0.91032032f, 0.84639923f,  -0.52760040f, -0.06202993f, 0.75238647f,  1.35519963f,
    1.36726507f,  4.12324211f,  -0.30349716f, 0.20517337f,  0.75577376f,  1.27413902f,  1.31458404f,
    3.94194739f,  -0.32922467f, 0.20317338f,  0.76207120f,  1.19380228f,  1.25740802f,  3.74106923f,
    -0.34272729f, 0.20362453f,  0.77656751f,  1.10735917f,  1.18658083f,  3.53243781f,  -0.34767738f,
    0.20269827f,  0.80633525f,  1.00265215f,  1.08681496f,  3.31624927f,  -0.34666468f, 0.19796139f,
    0.86012093f,  0.86387913f,  0.93803172f,  3.08224731f,  -0.34212487f, 0.18958438f,  0.94622932f,
    0.67689216f,  0.72159550f,  2.81472267f,  -0.33754708f, 0.18003611f,  1.06758406f,  0.43906313f,
    0.43283276f,  2.50217846f,  -0.33853214f, 0.17195420f,  1.21549377f,  0.16991977f,  0.09495559f,
    2.15046813f,  -0.35216640f, 0.16491750f,  1.36770091f,  -0.08886479f, -0.24020775f, 1.79136306f,
    -0.38273879f, 0.15337181f,  1.49664349f,  -0.29324821f, -0.51624848f, 1.47378862f,  -0.42579047f,
    0.12868323f,  1.58467740f,  -0.42376636f, -0.70545402f, 1.23718044f,  -0.46863170f, 0.08528106f,
    1.63254295f,  -0.49216849f, -0.81776594f, 1.08947151f,  -0.50008436f, 0.02558599f,  1.65332907f,
    -0.52352917f, -0.88032347f, 1.01044384f,  -0.51797761f, -0.04116382f, 1.66078841f,  -0.53767304f,
    -0.91568861f, 0.97164078f,  -0.52643533f, -0.10418562f, 1.66341061f,  -0.54457407f, -0.93585605f,
    0.95111112f,  -0.52997118f, -0.15525536f, 1.66499760f,  -0.54798156f, -0.94574850f, 0.93610898f,
    -0.53117525f, -0.18954523f, 1.66706041f,  -0.54918147f, -0.94717834f, 0.91995119f,  -0.53109292f,
    -0.20442926f, 1.67042062f,  -0.54883735f, -0.94085871f, 0.89893072f,  -0.52994782f, -0.19810682f,
    1.67574725f,  -0.54763085f, -0.92715882f, 0.87112841f,  -0.52751757f, -0.16918365f, 0.73786655f,
    1.38518033f,  1.40183380f,  3.93428834f,  -0.24594304f, 0.24279933f,  0.74321348f,  1.29399560f,
    1.33982824f,  3.76617585f,  -0.28522761f, 0.23992840f,  0.75014738f,  1.20733219f,  1.27756294f,
    3.57493405f,  -0.30986660f, 0.23806170f,  0.76373196f,  1.11934761f,  1.20679631f,  3.37626050f,
    -0.32406248f, 0.23367303f,  0.79055882f,  1.01898629f,  1.11344541f,  3.17427474f,  -0.33088839f,
    0.22417457f,  0.83883634f,  0.89131947f,  0.97841282f,  2.96203284f,  -0.33285517f, 0.20912707f,
    0.91687210f,  0.72161501f,  0.78228173f,  2.72560676f,  -0.33284939f, 0.19007449f,  1.02902122f,
    0.50331939f,  0.51562654f,  2.45205501f,  -0.33518828f, 0.16889887f,  1.16990129f,  0.24807677f,
    0.19237030f,  2.14095367f,  -0.34587915f, 0.14543750f,  1.32122141f,  -0.01064422f, -0.14498802f,
    1.81413664f,  -0.37029777f, 0.11600848f,  1.45705677f,  -0.23029549f, -0.44120932f, 1.51260701f,
    -0.40808651f, 0.07488785f,  1.55705634f,  -0.38366202f, -0.65910465f, 1.27591397f,  -0.45050724f,
    0.01884026f,  1.61686262f,  -0.47229540f, -0.79675265f, 1.11941188f,  -0.48607346f, -0.04900522f,
    1.64610423f,  -0.51651473f, -0.87590850f, 1.03095072f,  -0.50917281f, -0.12001231f, 1.65818242f,
    -0.53713983f, -0.92024177f, 0.98607525f,  -0.52146095f, -0.18455921f, 1.66282701f,  -0.54685395f,
    -0.94477244f, 0.96317521f,  -0.52714590f, -0.23568484f, 1.66502821f,  -0.55135853f, -0.95666819f,
    0.94853922f,  -0.52941367f, -0.26965142f, 1.66692915f,  -0.55286859f, -0.95885772f, 0.93466089f,
    -0.52983934f, -0.28454034f, 1.66953630f,  -0.55234228f, -0.95238459f, 0.91748745f,  -0.52891323f,
    -0.27874735f, 1.67342475f,  -0.55039807f, -0.93745118f, 0.89518565f,  -0.52645405f, -0.25048505f,
    0.71992239f,  1.43821366f,  1.45480420f,  3.72601759f,  -0.16495891f, 0.27168046f,  0.72799593f,
    1.33402115f,  1.38032140f,  3.58260275f,  -0.22202062f, 0.26929082f,  0.73620223f,  1.23768790f,
    1.30959111f,  3.41016446f,  -0.26191241f, 0.26655794f,  0.74922656f,  1.14491930f,  1.23579426f,
    3.22735268f,  -0.28861915f, 0.26055045f,  0.77306082f,  1.04608110f,  1.14637872f,  3.04218775f,
    -0.30538063f, 0.24875378f,  0.81523522f,  0.92734945f,  1.02359182f,  2.85149953f,  -0.31484945f,
    0.23018070f,  0.88385492f,  0.77385651f,  0.84793547f,  2.64399440f,  -0.31973454f, 0.20535665f,
    0.98448796f,  0.57595747f,  0.60629861f,  2.40671093f,  -0.32372346f, 0.17514049f,  1.11509619f,
    0.33808334f,  0.30389888f,  2.13485914f,  -0.33215951f, 0.13913747f,  1.26207031f,  0.08460779f,
    -0.02765519f, 1.84169751f,  -0.35108126f, 0.09496026f,  1.40257696f,  -0.14643369f, -0.33830192f,
    1.55963059f,  -0.38336513f, 0.03954798f,  1.51483880f,  -0.32290287f, -0.58466011f, 1.32579331f,
    -0.42447603f, -0.02767508f, 1.58924569f,  -0.43580863f, -0.75212649f, 1.16095101f,  -0.46407070f,
    -0.10237235f, 1.63046072f,  -0.49792871f, -0.85354085f, 1.06114627f,  -0.49370322f, -0.17634535f,
    1.65010982f,  -0.52891420f, -0.91116264f, 1.00732692f,  -0.51172409f, -0.24125858f, 1.65869729f,
    -0.54374131f, -0.94260718f, 0.97937931f,  -0.52111078f, -0.29150230f, 1.66259868f,  -0.55052664f,
    -0.95781384f, 0.96305911f,  -0.52536540f, -0.32436280f, 1.66490272f,  -0.55290655f, -0.96137144f,
    0.95008607f,  -0.52668148f, -0.33852531f, 1.66697855f,  -0.55240659f, -0.95498275f, 0.93613897f,
    -0.52591916f, -0.33260380f, 1.66929116f,  -0.54964276f, -0.93882803f, 0.91978953f,  -0.52291187f,
    -0.30466567f, 0.69828422f,  1.51490821f,  1.52695740f,  3.49543010f,  -0.05913872f, 0.28755065f,
    0.70950530f,  1.39565205f,  1.43773324f,  3.38633821f,  -0.13673549f, 0.28796700f,  0.71948482f,
    1.28617365f,  1.35514604f,  3.24163572f,  -0.19552526f, 0.28687598f,  0.73235722f,  1.18462264f,
    1.27458282f,  3.08108831f,  -0.23813030f, 0.28189760f,  0.75340527f,  1.08342963f,  1.18559027f,
    2.91599324f,  -0.26733188f, 0.27070795f,  0.78935707f,  0.97030958f,  1.07225735f,  2.74713877f,
    -0.28580171f, 0.25193845f,  0.84785893f,  0.83080811f,  0.91578686f,  2.56656933f,  -0.29633137f,
    0.22527610f,  0.93525451f,  0.65317859f,  0.70070152f,  2.36257277f,  -0.30245356f, 0.19064706f,
    1.05245068f,  0.43578371f,  0.42484240f,  2.12786962f,  -0.30920559f, 0.14720167f,  1.19074982f,
    0.19384117f,  0.10852899f,  1.86895116f,  -0.32304434f, 0.09316842f,  1.33178646f,  -0.04174695f,
    -0.20694027f, 1.60988942f,  -0.34929846f, 0.02727234f,  1.45435305f,  -0.23786588f, -0.47689561f,
    1.38345199f,  -0.38757422f, -0.04889988f, 1.54456853f,  -0.37666482f, -0.67582690f, 1.21321673f,
    -0.43009808f, -0.12964709f, 1.60117245f,  -0.46147128f, -0.80505112f, 1.10235161f,  -0.46689852f,
    -0.20668838f, 1.63216561f,  -0.50780872f, -0.88177144f, 1.03795371f,  -0.49265397f, -0.27245967f,
    1.64761181f,  -0.53137885f, -0.92435031f, 1.00272395f,  -0.50789273f, -0.32230964f, 1.65502092f,
    -0.54258785f, -0.94535094f, 0.98279497f,  -0.51565346f, -0.35427296f, 1.65862624f,  -0.54687974f,
    -0.95146233f, 0.96951401f,  -0.51856062f, -0.36749198f, 1.66035131f,  -0.54666997f, -0.94545857f,
    0.95850340f,  -0.51785013f, -0.36082636f, 1.66055581f,  -0.54267845f, -0.92776011f, 0.94901062f,
    -0.51328236f, -0.33247507f, 0.67302293f,  1.61162091f,  1.61550845f,  3.24512633f,  0.06919622f,
    0.28816403f,  0.68717417f,  1.47734143f,  1.51127801f,  3.17499903f,  -0.02855720f, 0.29383332f,
    0.69898765f,  1.35226327f,  1.41441611f,  3.06447335f,  -0.10791923f, 0.29735683f,  0.71192580f,
    1.23797679f,  1.32339231f,  2.93186753f,  -0.16890004f, 0.29645916f,  0.73047694f,  1.12995578f,
    1.23069639f,  2.79027899f,  -0.21287712f, 0.28891000f,  0.76045690f,  1.01820345f,  1.12299244f,
    2.64402341f,  -0.24208084f, 0.27313441f,  0.80877622f,  0.88939196f,  0.98306794f,  2.48880135f,
    -0.25934617f, 0.24832729f,  0.88198635f,  0.73074141f,  0.79449652f,  2.31513111f,  -0.26827442f,
    0.21383375f,  0.98318824f,  0.53598601f,  0.54955798f,  2.11493194f,  -0.27383487f, 0.16842427f,
    1.10823619f,  0.31196342f,  0.25808493f,  1.88991169f,  -0.28276958f, 0.11045540f,  1.24410056f,
    0.08083685f,  -0.04969831f, 1.65684227f,  -0.30220377f, 0.03939827f,  1.37234048f,  -0.12738169f,
    -0.33312371f, 1.44308657f,  -0.33553465f, -0.04208556f, 1.47691005f,  -0.28952548f, -0.56008672f,
    1.27258776f,  -0.37865574f, -0.12740214f, 1.55087020f,  -0.39950058f, -0.72013201f, 1.15376148f,
    -0.42187183f, -0.20782896f, 1.59698318f,  -0.46600660f, -0.82186409f, 1.07960495f,  -0.45667339f,
    -0.27572556f, 1.62299948f,  -0.50288793f, -0.88116115f, 1.03651359f,  -0.48005901f, -0.32655863f,
    1.63656204f,  -0.52170896f, -0.91184293f, 1.01206243f,  -0.49332107f, -0.35856458f, 1.64284072f,
    -0.52962315f, -0.92261873f, 0.99797718f,  -0.49881683f, -0.37112300f, 1.64438642f,  -0.53014224f,
    -0.91768247f, 0.99024024f,  -0.49789318f, -0.36339623f, 1.64149759f,  -0.52425067f, -0.89810419f,
    0.98892073f,  -0.49007900f, -0.33407477f, 0.64419555f,  1.72028459f,  1.71424800f,  2.98434436f,
    0.21368680f,  0.27486908f,  0.66032945f,  1.57349212f,  1.59699337f,  2.95060690f,  0.10026893f,
    0.28711200f,  0.67337812f,  1.43216506f,  1.48500707f,  2.87558499f,  0.00204762f,  0.29759744f,
    0.68617361f,  1.30201223f,  1.38048035f,  2.77378381f,  -0.07758202f, 0.30345627f,  0.70241593f,
    1.18268174f,  1.27983445f,  2.65806381f,  -0.13758125f, 0.30219532f,  0.72693662f,  1.06754805f,
    1.17329611f,  2.53510439f,  -0.17893551f, 0.29208228f,  0.76563804f,  0.94532751f,  1.04622469f,
    2.40395994f,  -0.20408635f, 0.27217173f,  0.82465921f,  0.80326660f,  0.88259941f,  2.25786240f,
    -0.21659455f, 0.24169369f,  0.90832047f,  0.63196228f,  0.67109813f,  2.08923125f,  -0.22140769f,
    0.19935525f,  1.01611404f,  0.43128396f,  0.41282289f,  1.89687888f,  -0.22543800f, 0.14350631f,
    1.14040147f,  0.21439052f,  0.12637523f,  1.69177994f,  -0.23705198f, 0.07360483f,  1.26723081f,
    0.00507218f,  -0.15580474f, 1.49576789f,  -0.26284425f, -0.00779606f, 1.38109696f,  -0.17261187f,
    -0.40071913f, 1.33136015f,  -0.30291154f, -0.09422850f, 1.47111108f,  -0.30546846f, -0.58890517f,
    1.21020404f,  -0.34969107f, -0.17681262f, 1.53431960f,  -0.39427545f, -0.71869016f, 1.13019286f,
    -0.39291096f, -0.24729136f, 1.57427505f,  -0.44834551f, -0.79990202f, 1.08149702f,  -0.42569793f,
    -0.30030733f, 1.59701890f,  -0.47830664f, -0.84495935f, 1.05378628f,  -0.44619032f, -0.33348533f,
    1.60776171f,  -0.49209255f, -0.86353072f, 1.03987758f,  -0.45523489f, -0.34602701f, 1.60944113f,
    -0.49414257f, -0.86121383f, 1.03653784f,  -0.45363154f, -0.33740755f, 1.60241102f,  -0.48589972f,
    -0.84023603f, 1.04452877f,  -0.44051859f, -0.30724238f, 0.61138373f,  1.82950411f,  1.81448418f,
    2.72657848f,  0.36495743f,  0.25316943f,  0.62799986f,  1.67420974f,  1.68753630f,  2.71958718f,
    0.24406824f,  0.27119747f,  0.64101724f,  1.51762755f,  1.56091459f,  2.67469038f,  0.13270070f,
    0.28916011f,  0.65292155f,  1.36965272f,  1.44071881f,  2.60163250f,  0.03747592f,  0.30301144f,
    0.66681456f,  1.23510992f,  1.32822646f,  2.51136966f,  -0.03756597f, 0.30951970f,  0.68656300f,
    1.11201150f,  1.21835425f,  2.41141465f,  -0.09128968f, 0.30668157f,  0.71681981f,  0.99213627f,
    1.10001588f,  2.30318811f,  -0.12498120f, 0.29364812f,  0.76270517f,  0.86362711f,  0.95866113f,
    2.18237019f,  -0.14169712f, 0.26996324f,  0.82872080f,  0.71517935f,  0.78105778f,  2.04251197f,
    -0.14615777f, 0.23468807f,  0.91672117f,  0.54137967f,  0.56180005f,  1.88101409f,  -0.14525296f,
    0.18634241f,  1.02366920f,  0.34739680f,  0.30903705f,  1.70467894f,  -0.14806911f, 0.12408590f,
    1.14079619f,  0.14942974f,  0.04492715f,  1.53036540f,  -0.16359520f, 0.04954381f,  1.25552594f,
    -0.03141845f, -0.20184817f, 1.37815723f,  -0.19597164f, -0.03206218f, 1.35575198f,  -0.17868724f,
    -0.40777275f, 1.26129716f,  -0.24112535f, -0.11261559f, 1.43399444f,  -0.28646102f, -0.56223493f,
    1.18144139f,  -0.28902613f, -0.18350404f, 1.48875234f,  -0.35814609f, -0.66692043f, 1.13208982f,
    -0.32975584f, -0.23809755f, 1.52268040f,  -0.40125539f, -0.72987494f, 1.10496018f,  -0.35752788f,
    -0.27265035f, 1.53957799f,  -0.42291190f, -0.75974801f, 1.09406575f,  -0.37035465f, -0.28560255f,
    1.54213907f,  -0.42781206f, -0.76290357f, 1.09692201f,  -0.36761233f, -0.27660424f, 1.53094657f,
    -0.41796972f, -0.74308338f, 1.11445530f,  -0.34803091f, -0.24654759f, 0.57350272f,  1.92641569f,
    1.90624105f,  2.48440045f,  0.51257159f,  0.23128168f,  0.58895956f,  1.76626444f,  1.77270506f,
    2.49027435f,  0.39429099f,  0.25207831f,  0.60030504f,  1.59599086f,  1.63234166f,  2.46421852f,
    0.27876849f,  0.27545016f,  0.61016953f,  1.42925211f,  1.49501039f,  2.41228910f,  0.17463960f,
    0.29610114f,  0.62146354f,  1.27674314f,  1.36759436f,  2.34326356f,  0.08865986f,  0.30981725f,
    0.63724282f,  1.14224732f,  1.25073428f,  2.26432996f,  0.02454478f,  0.31422569f,  0.66073795f,
    1.02138139f,  1.13758964f,  2.17781220f,  -0.01707137f, 0.30870052f,  0.69553428f,  0.90356207f,
    1.01554456f,  2.08069443f,  -0.03805729f, 0.29336549f,  0.74539653f,  0.77628733f,  0.87049671f,
    1.96740789f,  -0.04245691f, 0.26793919f,  0.81321171f,  0.63045312f,  0.69265935f,  1.83479339f,
    -0.03680393f, 0.23136042f,  0.89918995f,  0.46512729f,  0.48206687f,  1.68693592f,  -0.03035606f,
    0.18255518f,  0.99928571f,  0.28941053f,  0.25096397f,  1.53664820f,  -0.03353247f, 0.12194097f,
    1.10510304f,  0.11933514f,  0.02064084f,  1.40118838f,  -0.05368001f, 0.05277772f,  1.20594805f,
    -0.02913036f, -0.18644666f, 1.29419973f,  -0.09063158f, -0.01860813f, 1.29225024f,  -0.14633766f,
    -0.35456353f, 1.22019899f,  -0.13644590f, -0.08418816f, 1.35829006f,  -0.23051827f, -0.47789303f,
    1.17563090f,  -0.18001790f, -0.13647998f, 1.40259953f,  -0.28511120f, -0.55849307f, 1.15392298f,
    -0.21220952f, -0.17020648f, 1.42633706f,  -0.31507697f, -0.60206629f, 1.14974430f,  -0.22769949f,
    -0.18265838f, 1.43120384f,  -0.32448630f, -0.61464144f, 1.16063965f,  -0.22390491f, -0.17345478f,
    1.41811457f,  -0.31576513f, -0.60129723f, 1.18683972f,  -0.19934537f, -0.14487177f, 0.52916170f,
    1.99888532f,  1.97952068f,  2.26436123f,  0.64717637f,  0.21677780f,  0.54224664f,  1.83553598f,
    1.84099910f,  2.26925854f,  0.54098071f,  0.23589139f,  0.55052048f,  1.65260651f,  1.68734582f,
    2.24830965f,  0.43156891f,  0.26017928f,  0.55726997f,  1.46702563f,  1.53203954f,  2.20641330f,
    0.32785753f,  0.28370148f,  0.56571996f,  1.29568503f,  1.38811954f,  2.15148976f,  0.23813636f,
    0.30161484f,  0.57838229f,  1.14867523f,  1.26254538f,  2.09009203f,  0.16834671f,  0.31138812f,
    0.59702611f,  1.02547254f,  1.15271232f,  2.02388920f,  0.12135039f,  0.31272608f,  0.62340207f,
    0.91641707f,  1.04756479f,  1.94940948f,  0.09705127f,  0.30634060f,  0.65992726f,  0.80797989f,
    0.93239507f,  1.86102933f,  0.09263170f,  0.29258287f,  0.70944905f,  0.68871481f,  0.79470722f,
    1.75531601f,  0.10236917f,  0.27084732f,  0.77396285f,  0.55379074f,  0.62913331f,  1.63477383f,
    0.11742291f,  0.23995549f,  0.85290055f,  0.40693996f,  0.44008677f,  1.50918777f,  0.12697060f,
    0.19925017f,  0.94195726f,  0.25891314f,  0.24098017f,  1.39297023f,  0.12175470f,  0.14994506f,
    1.03339069f,  0.12280272f,  0.04982936f,  1.29921587f,  0.09863050f,  0.09603355f,  1.11804496f,
    0.00882980f,  -0.11683127f, 1.23446105f,  0.06245613f,  0.04397113f,  1.18808583f,  -0.07831803f,
    -0.24853632f, 1.19790110f,  0.02340120f,  0.00104084f,  1.23877661f,  -0.13879404f, -0.34198387f,
    1.18461726f,  -0.00793100f, -0.02663991f, 1.26848792f,  -0.17518909f, -0.39920968f, 1.18944003f,
    -0.02382675f, -0.03547012f, 1.27755311f,  -0.19041222f, -0.42492249f, 1.20906202f,  -0.02008590f,
    -0.02506991f, 1.26710315f,  -0.18681049f, -0.42469107f, 1.24220108f,  0.00467064f,  0.00099684f,
    0.47759455f,  2.03801065f,  2.02592768f,  2.06550718f,  0.76213497f,  0.21286083f,  0.48810187f,
    1.87087625f,  1.88242662f,  2.05946586f,  0.67475928f,  0.22564813f,  0.49290609f,  1.67582534f,
    1.71569016f,  2.03226461f,  0.58044686f,  0.24510174f,  0.49619627f,  1.47276147f,  1.54285484f,
    1.99021764f,  0.48688266f,  0.26575991f,  0.50186308f,  1.28451512f,  1.38327189f,  1.94225389f,
    0.40229122f,  0.28313678f,  0.51217497f,  1.12689839f,  1.24994494f,  1.89448445f,  0.33370360f,
    0.29514012f,  0.52763480f,  1.00222880f,  1.14355268f,  1.84666380f,  0.28577439f,  0.30191211f,
    0.54823348f,  0.90092541f,  1.05356653f,  1.79330836f,  0.26030934f,  0.30448395f,  0.57487057f,
    0.80850421f,  0.96450463f,  1.72787093f,  0.25610326f,  0.30345168f,  0.60972194f,  0.71237905f,
    0.86237918f,  1.64671998f,  0.26868954f,  0.29840006f,  0.65538694f,  0.60580684f,  0.73882395f,
    1.55154249f,  0.29021525f,  0.28805199f,  0.71333868f,  0.48913919f,  0.59303161f,  1.44993893f,
    0.31041011f,  0.27097810f,  0.78238485f,  0.36878489f,  0.43183841f,  1.35362999f,  0.31950497f,
    0.24676160f,  0.85795748f,  0.25418310f,  0.26774955f,  1.27439121f,  0.31228459f,  0.21719289f,
    0.93287378f,  0.15400211f,  0.11510881f,  1.21980348f,  0.29058403f,  0.18665089f,  0.99936664f,
    0.07347625f,  -0.01420624f, 1.19146382f,  0.26214466f,  0.16113615f,  1.05124448f,  0.01400414f,
    -0.11360410f, 1.18630109f,  0.23676467f,  0.14638029f,  1.08504102f,  -0.02546717f, -0.18207263f,
    1.19939239f,  0.22259124f,  0.14593793f,  1.09992183f,  -0.04670361f, -0.22256232f, 1.22630918f,
    0.22431981f,  0.15973887f,  1.09692800f,  -0.05135336f, -0.24000545f, 1.26398681f,  0.24297891f,
    0.18308125f,  0.41979096f,  2.04097525f,  2.04099071f,  1.88316076f,  0.85424608f,  0.21670770f,
    0.42879340f,  1.86855473f,  1.89214296f,  1.86205245f,  0.78865513f,  0.21956427f,  0.43118272f,
    1.66271636f,  1.71360324f,  1.82341306f,  0.71511386f,  0.22904491f,  0.43180309f,  1.44596178f,
    1.52608310f,  1.77613525f,  0.63927331f,  0.24137993f,  0.43520154f,  1.24576945f,  1.35455101f,
    1.73096249f,  0.56793148f,  0.25359630f,  0.44367805f,  1.08178887f,  1.21668969f,  1.69349852f,
    0.50777869f,  0.26467619f,  0.45696273f,  0.95756136f,  1.11490390f,  1.66104098f,  0.46422990f,
    0.27520389f,  0.47379218f,  0.86302106f,  1.03821217f,  1.62572578f,  0.44053111f,  0.28613950f,
    0.49380535f,  0.78323548f,  0.97036020f,  1.58003732f,  0.43707786f,  0.29784395f,  0.51831124f,
    0.70558330f,  0.89680278f,  1.52030136f,  0.45090582f,  0.30972945f,  0.54977739f,  0.62279707f,
    0.80788480f,  1.44774814f,  0.47559512f,  0.32032717f,  0.59054879f,  0.53333858f,  0.69975281f,
    1.36828341f,  0.50218470f,  0.32772479f,  0.64133814f,  0.44044298f,  0.57454445f,  1.29113630f,
    0.52157227f,  0.33047892f,  0.70011204f,  0.35015328f,  0.43984647f,  1.22626875f,  0.52782015f,
    0.32874151f,  0.76204474f,  0.26873527f,  0.30671919f,  1.18135457f,  0.52051947f,  0.32486457f,
    0.82075129f,  0.20045566f,  0.18632187f,  1.15973094f,  0.50452523f,  0.32287637f,  0.87020745f,
    0.14677499f,  0.08651677f,  1.16019471f,  0.48726019f,  0.32693245f,  0.90634949f,  0.10721009f,
    0.01024641f,  1.17849329f,  0.47547556f,  0.33937620f,  0.92766676f,  0.08091042f,  -0.04371912f,
    1.20952022f,  0.47316477f,  0.35904419f,  0.93480821f,  0.06740420f,  -0.07884901f, 1.24883640f,
    0.48090867f,  0.38028317f,  0.35907463f,  2.01334387f,  2.02651016f,  1.71588879f,  0.92351212f,
    0.22138979f,  0.36853946f,  1.83515931f,  1.87324308f,  1.68080650f,  0.87913327f,  0.21274747f,
    0.37070953f,  1.62183552f,  1.68645078f,  1.63216914f,  0.82795930f,  0.20955265f,  0.37036049f,
    1.39752280f,  1.48969822f,  1.58056836f,  0.77355114f,  0.21053699f,  0.37233894f,  1.19195530f,
    1.31180443f,  1.53756480f,  0.72057700f,  0.21489150f,  0.37920886f,  1.02610504f,  1.17310140f,
    1.50774057f,  0.67425877f,  0.22288073f,  0.39062266f,  0.90352632f,  1.07642605f,  1.48641029f,
    0.63962057f,  0.23539531f,  0.40483183f,  0.81398478f,  1.01013931f,  1.46438739f,  0.62050081f,
    0.25310358f,  0.42072526f,  0.74305110f,  0.95768579f,  1.43397089f,  0.61846544f,  0.27593959f,
    0.43885539f,  0.67889013f,  0.90466439f,  1.39166972f,  0.63199001f,  0.30298449f,  0.46123181f,
    0.61437800f,  0.84107983f,  1.33829012f,  0.65630333f,  0.33253350f,  0.49033185f,  0.54688221f,
    0.76142034f,  1.27822717f,  0.68422225f,  0.36241312f,  0.52777859f,  0.47737731f,  0.66477922f,
    1.21844078f,  0.70808972f,  0.39067712f,  0.57317052f,  0.40915344f,  0.55509954f,  1.16693324f,
    0.72230082f,  0.41645532f,  0.62363995f,  0.34608474f,  0.44042107f,  1.13081493f,  0.72518504f,
    0.44040361f,  0.67448481f,  0.29090114f,  0.33040394f,  1.11439295f,  0.71908273f,  0.46433760f,
    0.72064166f,  0.24439044f,  0.23296681f,  1.11797785f,  0.70858854f,  0.49008465f,  0.75825968f,
    0.20615864f,  0.15207309f,  1.13820649f,  0.69816718f,  0.51792032f,  0.78555714f,  0.17620402f,
    0.08797618f,  1.16988334f,  0.69045964f,  0.54513879f,  0.80263837f,  0.15546061f,  0.03896990f,
    1.20788959f,  0.68564501f,  0.56541471f,  0.30054710f,  1.96841029f,  1.99074620f,  1.57040063f,
    0.97218695f,  0.22009476f,  0.31230565f,  1.78614473f,  1.83618663f,  1.52475134f,  0.94603039f,
    0.20097899f,  0.31658580f,  1.57020153f,  1.64674684f,  1.47085291f,  0.91534418f,  0.18567314f,
    0.31716927f,  1.34491723f,  1.44739847f,  1.41874153f,  0.88203352f,  0.17553813f,  0.31866868f,
    1.13963767f,  1.26848967f,  1.37877760f,  0.84862302f,  0.17179203f,  0.32404327f,  0.97469185f,
    1.13122451f,  1.35405507f,  0.81836638f,  0.17568841f,  0.33350674f,  0.85345310f,  1.03851778f,
    1.33912270f,  0.79507914f,  0.18826407f,  0.34556588f,  0.76647037f,  0.97872065f,  1.32511931f,
    0.78234116f,  0.20999196f,  0.35890610f,  0.70070641f,  0.93569693f,  1.30509436f,  0.78225297f,
    0.24059410f,  0.37358192f,  0.64547822f,  0.89560264f,  1.27589359f,  0.79441123f,  0.27899282f,
    0.39109818f,  0.59394826f,  0.84848441f,  1.23781188f,  0.81564510f,  0.32338175f,  0.41370193f,
    0.54271958f,  0.78792643f,  1.19383383f,  0.84069016f,  0.37153579f,  0.44328462f,  0.49111903f,
    0.71116814f,  1.14895016f,  0.86367428f,  0.42135515f,  0.48030270f,  0.44033227f,  0.61975454f,
    1.10937353f,  0.87993433f,  0.47136999f,  0.52319138f,  0.39219892f,  0.51945300f,  1.08137799f,
    0.88734887f,  0.52086361f,  0.56862054f,  0.34789866f,  0.41840060f,  1.06958274f,  0.88646804f,
    0.56949733f,  0.61255413f,  0.30740137f,  0.32401594f,  1.07516675f,  0.87942715f,  0.61654832f,
    0.65160364f,  0.27040329f,  0.24072711f,  1.09540182f,  0.86845086f,  0.65991800f,  0.68388524f,
    0.23788962f,  0.17004669f,  1.12522422f,  0.85482547f,  0.69527345f,  0.70893303f,  0.21221923f,
    0.11199486f,  1.15936991f,  0.83847958f,  0.71593302f,  0.24983646f,  1.92197716f,  1.94469525f,
    1.46041173f,  1.00343123f,  0.20908552f,  0.26441034f,  1.73942920f,  1.79395313f,  1.40625524f,
    0.99153964f,  0.18305628f,  0.27214373f,  1.52584306f,  1.60823331f,  1.35035654f,  0.97743371f,
    0.15897220f,  0.27503273f,  1.30449887f,  1.41226113f,  1.30007692f,  0.96200382f,  0.14042147f,
    0.27688197f,  1.10263851f,  1.23593038f,  1.26295627f,  0.94608683f,  0.13006718f,  0.28095683f,
    0.93920572f,  1.10041100f,  1.24054825f,  0.93105759f,  0.12970392f,  0.28837088f,  0.81793702f,
    1.00922765f,  1.22779377f,  0.91920680f,  0.14043834f,  0.29838621f,  0.73105559f,  0.95176067f,
    1.21730864f,  0.91329106f,  0.16280879f,  0.30992370f,  0.66735149f,  0.91292557f,  1.20338866f,
    0.91537674f,  0.19672762f,  0.32282296f,  0.61728763f,  0.87959094f,  1.18324300f,  0.92576694f,
    0.24134844f,  0.33818026f,  0.57425205f,  0.84194997f,  1.15663447f,  0.94263590f,  0.29509239f,
    0.35790151f,  0.53424465f,  0.79309450f,  1.12533458f,  0.96248334f,  0.35595696f,  0.38382263f,
    0.49535821f,  0.72917746f,  1.09278085f,  0.98118319f,  0.42192675f,  0.41676348f,  0.45716625f,
    0.65021793f,  1.06377440f,  0.99520280f,  0.49115693f,  0.45591043f,  0.41982413f,  0.56030750f,
    1.04375144f,  1.00245526f,  0.56178483f,  0.49884733f,  0.38311462f,  0.46615342f,  1.03712231f,
    1.00237984f,  0.63153424f,  0.54229801f,  0.34632008f,  0.37440063f,  1.04511789f,  0.99532812f,
    0.69730337f,  0.58322961f,  0.30948735f,  0.28968532f,  1.06496920f,  0.98183999f,  0.75474070f,
    0.61960808f,  0.27481352f,  0.21472476f,  1.09152640f,  0.96225911f,  0.79803176f,  0.65038495f,
    0.24594779f,  0.15116967f,  1.11966587f,  0.93649320f,  0.82035095f,  0.21242828f,  1.88462545f,
    1.89587360f,  1.40134065f,  1.01983562f,  0.18684466f,  0.22829294f,  1.70739523f,  1.75541029f,
    1.33711218f,  1.01863261f,  0.15955285f,  0.23908353f,  1.50063141f,  1.57968607f,  1.27797278f,
    1.01681064f,  0.13176112f,  0.24458659f,  1.28612976f,  1.39188089f,  1.22780185f,  1.01490054f,
    0.10872992f,  0.24726150f,  1.08870199f,  1.22023561f,  1.19089621f,  1.01271319f,  0.09408512f,
    0.25030851f,  0.92618755f,  1.08573255f,  1.16753944f,  1.01019382f,  0.08992678f,  0.25568585f,
    0.80337724f,  0.99340346f,  1.15356838f,  1.00820552f,  0.09745321f,  0.26360725f,  0.71464491f,
    0.93468224f,  1.14329865f,  1.00847335f,  0.11746073f,  0.27350875f,  0.65064534f,  0.89601727f,
    1.13221296f,  1.01267893f,  0.15035490f,  0.28525165f,  0.60283976f,  0.86504201f,  1.11780295f,
    1.02146573f,  0.19590407f,  0.29966489f,  0.56479004f,  0.83213184f,  1.09938489f,  1.03400009f,
    0.25316090f,  0.31834149f,  0.53203266f,  0.79013506f,  1.07783684f,  1.04819710f,  0.32068364f,
    0.34296595f,  0.50170486f,  0.73455189f,  1.05553661f,  1.06138050f,  0.39677376f,  0.37450088f,
    0.47205645f,  0.66430438f,  1.03631653f,  1.07102850f,  0.47939176f,  0.41256796f,  0.44175060f,
    0.58201789f,  1.02484012f,  1.07525523f,  0.56576293f,  0.45531775f,  0.40931097f,  0.49289647f,
    1.02478898f,  1.07284243f,  0.65200773f,  0.49991858f,  0.37358676f,  0.40265654f,  1.03649649f,
    1.06300485f,  0.73299387f,  0.54342557f,  0.33536266f,  0.31618735f,  1.05625998f,  1.04530722f,
    0.80235916f,  0.58344290f,  0.29824694f,  0.23759628f,  1.07847257f,  1.01974210f,  0.85293624f,
    0.61826740f,  0.26689343f,  0.17010212f,  1.09843092f,  0.98647904f,  0.87779486f,
};

static const float scaler_median[] = {
    79.24608459f, 55.22680509f, 55.97074111f, 0.00000000f, 6.75680265f, -2.12977639f,
};

static const float scaler_iqr[] = {
    15.55552022f, 56.75597500f, 37.85341170f, 1.00000000f, 0.24012330f, 2.01665424f,
};

static const uint8_t som_clusters[] = {
    0, 0, 0, 0, 0, 0, 0, 0, 1, 1, 1, 1, 1, 1, 1, 1, 1, 1, 1, 1, 0, 0, 0, 0, 0, 0, 0, 0, 1, 1, 1, 1, 1, 1,
    1, 1, 1, 1, 1, 1, 0, 0, 0, 0, 0, 0, 0, 0, 1, 1, 1, 1, 1, 1, 1, 1, 1, 1, 1, 1, 0, 0, 0, 0, 0, 0, 0, 0,
    1, 1, 1, 1, 1, 1, 1, 1, 1, 1, 1, 1, 0, 0, 0, 0, 0, 0, 0, 0, 1, 1, 1, 1, 1, 1, 1, 1, 1, 1, 1, 1, 0, 0,
    0, 0, 0, 0, 0, 0, 1, 1, 1, 1, 1, 1, 1, 1, 1, 1, 1, 1, 0, 0, 0, 0, 0, 0, 0, 0, 1, 1, 1, 1, 1, 1, 1, 1,
    1, 1, 1, 1, 0, 0, 0, 0, 0, 0, 0, 0, 1, 1, 1, 1, 1, 1, 1, 1, 1, 1, 1, 1, 0, 0, 0, 0, 0, 0, 0, 0, 0, 1,
    1, 1, 1, 1, 1, 1, 1, 1, 1, 1, 0, 0, 0, 0, 0, 0, 0, 0, 0, 1, 1, 1, 1, 1, 1, 1, 1, 1, 1, 1, 0, 0, 0, 0,
    0, 0, 0, 0, 0, 1, 1, 1, 1, 1, 1, 1, 1, 1, 1, 1, 0, 0, 0, 0, 0, 0, 0, 0, 0, 0, 1, 1, 1, 1, 1, 1, 1, 1,
    1, 1, 0, 0, 0, 0, 0, 0, 0, 0, 0, 0, 1, 1, 1, 1, 1, 1, 1, 1, 1, 1, 0, 0, 0, 0, 0, 0, 0, 0, 0, 2, 2, 2,
    1, 1, 1, 1, 1, 1, 1, 1, 0, 0, 0, 0, 0, 2, 2, 2, 2, 2, 2, 2, 2, 1, 1, 1, 1, 1, 1, 1, 2, 2, 2, 2, 2, 2,
    2, 2, 2, 2, 2, 2, 2, 2, 2, 2, 1, 1, 1, 1, 2, 2, 2, 2, 2, 2, 2, 2, 2, 2, 2, 2, 2, 2, 2, 2, 2, 2, 2, 2,
    2, 2, 2, 2, 2, 2, 2, 2, 2, 2, 2, 2, 2, 2, 2, 2, 2, 2, 2, 2, 2, 2, 2, 2, 2, 2, 2, 2, 2, 2, 2, 2, 2, 2,
    2, 2, 2, 2, 2, 2, 2, 2, 2, 2, 2, 2, 2, 2, 2, 2, 2, 2, 2, 2, 2, 2, 2, 2, 2, 2,

};
